GenomeStart 0
Neuron 1 1 0.00000000 1 0.00000000 0.00000000 0.00000000 0.00000000
Neuron 2 1 0.00000000 1 0.00000000 0.00000000 0.00000000 0.00000000
Neuron 3 1 0.00000000 1 0.00000000 0.00000000 0.00000000 0.00000000
Neuron 4 1 0.00000000 1 0.00000000 0.00000000 0.00000000 0.00000000
Neuron 5 4 1.00000000 2 4.00000000 0.00000000 0.14000000 0.00000000
Neuron 6 4 1.00000000 2 4.00000000 0.00000000 0.14000000 0.00000000
Neuron 7 4 1.00000000 2 4.00000000 0.00000000 0.14000000 0.00000000
Neuron 8 4 1.00000000 2 4.00000000 0.00000000 0.14000000 0.00000000
Neuron 9 4 1.00000000 2 4.00000000 0.00000000 0.14000000 0.00000000
Neuron 10 4 1.00000000 2 4.00000000 0.00000000 0.14000000 0.00000000
Neuron 11 4 1.00000000 2 4.00000000 0.00000000 0.14000000 0.00000000
Neuron 12 4 1.00000000 2 4.00000000 0.00000000 0.14000000 0.00000000
Neuron 13 4 1.00000000 2 4.00000000 0.00000000 0.14000000 0.00000000
Neuron 14 4 1.00000000 2 4.00000000 0.00000000 0.14000000 0.00000000
Neuron 15 4 1.00000000 2 4.00000000 0.00000000 0.14000000 0.00000000
Neuron 16 4 1.00000000 2 4.00000000 0.00000000 0.14000000 0.00000000
Link 1 5 1 0 0.00000000
Link 2 5 2 0 0.00000000
Link 3 5 3 0 0.00000000
Link 4 5 4 0 0.00000000
Link 1 6 5 0 0.00000000
Link 2 6 6 0 0.00000000
Link 3 6 7 0 0.00000000
Link 4 6 8 0 0.00000000
Link 1 7 9 0 0.00000000
Link 2 7 10 0 0.00000000
Link 3 7 11 0 0.00000000
Link 4 7 12 0 0.00000000
Link 1 8 13 0 0.00000000
Link 2 8 14 0 0.00000000
Link 3 8 15 0 0.00000000
Link 4 8 16 0 0.00000000
Link 1 9 17 0 0.00000000
Link 2 9 18 0 0.00000000
Link 3 9 19 0 0.00000000
Link 4 9 20 0 0.00000000
Link 1 10 21 0 0.00000000
Link 2 10 22 0 0.00000000
Link 3 10 23 0 0.00000000
Link 4 10 24 0 0.00000000
Link 1 11 25 0 0.00000000
Link 2 11 26 0 0.00000000
Link 3 11 27 0 0.00000000
Link 4 11 28 0 0.00000000
Link 1 12 29 0 0.00000000
Link 2 12 30 0 0.00000000
Link 3 12 31 0 0.00000000
Link 4 12 32 0 0.00000000
Link 1 13 33 0 0.00000000
Link 2 13 34 0 0.00000000
Link 3 13 35 0 0.00000000
Link 4 13 36 0 0.00000000
Link 1 14 37 0 0.00000000
Link 2 14 38 0 0.00000000
Link 3 14 39 0 0.00000000
Link 4 14 40 0 0.00000000
Link 1 15 41 0 0.00000000
Link 2 15 42 0 0.00000000
Link 3 15 43 0 0.00000000
Link 4 15 44 0 0.00000000
Link 1 16 45 0 0.00000000
Link 2 16 46 0 0.00000000
Link 3 16 47 0 0.00000000
Link 4 16 48 0 0.00000000
GenomeEnd

